{
  "ip": 0,
  "fr": 60,
  "v": "5.5.8",
  "assets": [],
  "layers": [
    {
      "ty": 4,
      "nm": "line",
      "ip": 0,
      "st": 0,
      "ind": 2,
      "hix": 2,
      "ks": {
        "o": { "a": 0, "k": 100 },
        "or": { "a": 0, "k": [0, 0, 0] },
        "a": { "a": 0, "k": [90.5, 89, 0] },
        "p": {
          "s": true,
          "x": { "a": 0, "k": 109.3495 },
          "y": {
            "a": 1,
            "k": [
              {
                "t": 0,
                "s": [20],
                "e": [200],
                "i": { "x": [0.515], "y": [0.955] },
                "o": { "x": [0.455], "y": [0.03] }
              },
              {
                "t": 25,
                "s": [200],
                "e": [15],
                "i": { "x": [0.515], "y": [0.955] },
                "o": { "x": [0.455], "y": [0.03] }
              },
              { "t": 50 }
            ]
          }
        },
        "rx": { "a": 0, "k": 0 },
        "ry": { "a": 0, "k": 0 },
        "rz": { "a": 0, "k": 0 },
        "s": { "a": 0, "k": [119.9, 100] }
      },
      "shapes": [
        {
          "ty": "gr",
          "nm": "line shape group",
          "it": [
            {
              "ty": "sh",
              "ks": {
                "a": 0,
                "k": {
                  "c": false,
                  "v": [
                    [3, 83],
                    [177, 83]
                  ],
                  "i": [
                    [0, 0],
                    [0, 0]
                  ],
                  "o": [
                    [0, 0],
                    [0, 0]
                  ]
                }
              }
            },
            {
              "ty": "st",
              "o": { "a": 0, "k": 100 },
              "c": {
                "a": 0,
                "k": [
                  0.27450980392156865, 0.8156862745098039, 0.18823529411764706,
                  1
                ]
              },
              "lc": 3,
              "lj": 1,
              "ml": 1,
              "w": { "a": 0, "k": 5 }
            },
            {
              "ty": "fl",
              "o": { "a": 0, "k": 0 },
              "c": { "a": 0, "k": [0, 0, 0, 0] },
              "r": 1
            },
            {
              "ty": "tr",
              "o": { "a": 0, "k": 100 },
              "a": { "a": 0, "k": [0, 0] },
              "s": { "a": 0, "k": [100, 100] },
              "p": { "a": 0, "k": [0, 0] },
              "r": { "a": 0, "k": 0 }
            }
          ]
        }
      ],
      "op": 50
    },
    {
      "ty": 4,
      "nm": "download",
      "ip": 0,
      "st": 0,
      "ind": 1,
      "hix": 1,
      "ks": {
        "o": { "a": 0, "k": 100 },
        "or": { "a": 0, "k": [0, 0, 0] },
        "a": { "a": 0, "k": [250, 250, 0] },
        "p": {
          "s": true,
          "x": { "a": 0, "k": 108.74300496673582 },
          "y": { "a": 0, "k": 104.19699840927123 }
        },
        "rx": { "a": 0, "k": 0 },
        "ry": { "a": 0, "k": 0 },
        "rz": { "a": 0, "k": 0 },
        "s": { "a": 0, "k": [43.4, 41.699999999999996] }
      },
      "shapes": [
        {
          "ty": "gr",
          "nm": "download shape group",
          "it": [
            {
              "ty": "sh",
              "ks": {
                "a": 0,
                "k": {
                  "c": true,
                  "v": [
                    [163.34375, 115.207031],
                    [163.34375, 82.898438],
                    [147.425781, 82.898438],
                    [147.425781, 67.027344],
                    [147.488281, 66.96875],
                    [147.636719, 66.90625],
                    [163.34375, 66.90625],
                    [163.363281, 50.902344],
                    [179.242188, 50.878906],
                    [179.242188, 34.636719],
                    [163.386719, 34.636719],
                    [163.363281, 50.902344],
                    [147.539062, 50.925781],
                    [147.425781, 18.667969],
                    [195.300781, 18.667969],
                    [195.300781, 19.964844],
                    [195.300781, 33.097656],
                    [195.328125, 34.148438],
                    [196.085938, 34.914062],
                    [197.316406, 34.941406],
                    [225.71875, 34.941406],
                    [227.550781, 34.941406],
                    [227.550781, 50.917969],
                    [211.640625, 50.917969],
                    [211.640625, 66.898438],
                    [179.390625, 66.898438],
                    [179.519531, 82.882812],
                    [211.640625, 82.882812],
                    [211.640625, 99.171875],
                    [219.546875, 99.210938],
                    [227.566406, 99.210938],
                    [227.566406, 163.296875],
                    [243.554688, 163.410156],
                    [243.554688, 147.234375],
                    [259.582031, 147.234375],
                    [259.582031, 153.234375],
                    [259.582031, 162.105469],
                    [260.992188, 163.484375],
                    [289.214844, 163.484375],
                    [291.699219, 163.484375],
                    [291.824219, 179.40625],
                    [275.960938, 179.40625],
                    [275.960938, 227.347656],
                    [243.683594, 227.347656],
                    [243.683594, 211.460938],
                    [259.851562, 211.460938],
                    [259.851562, 179.511719],
                    [243.621094, 179.511719],
                    [243.621094, 195.40625],
                    [227.683594, 195.40625],
                    [227.683594, 179.671875],
                    [211.640625, 179.527344],
                    [211.640625, 211.425781],
                    [195.71875, 211.425781],
                    [195.667969, 210.082031],
                    [195.667969, 165.34375],
                    [195.667969, 164.632812],
                    [194.199219, 163.132812],
                    [179.40625, 163.132812],
                    [179.40625, 147.164062],
                    [195.609375, 147.164062],
                    [195.609375, 131.234375],
                    [203.578125, 131.175781],
                    [211.589844, 131.175781],
                    [211.589844, 115.273438],
                    [195.335938, 115.273438],
                    [195.335938, 131.101562],
                    [179.445312, 131.101562],
                    [179.398438, 131.0625],
                    [179.332031, 130.914062],
                    [179.332031, 115.191406]
                  ],
                  "i": [
                    [5.308593999999999, 0],
                    [0, 10.8125],
                    [5.3125, 0],
                    [0, 5.316406000000001],
                    [-0.05468700000000126, 0.03515600000000063],
                    [-0.05078100000000063, 0],
                    [-5.3125, 0],
                    [-0.01953100000000063, 5.332031000000001],
                    [-5.300781999999998, 0],
                    [0, 5.390625],
                    [5.296875, 0],
                    [0.023437999999998738, -5.390625],
                    [5.2656259999999975, 0],
                    [-0.23828100000000063, 5.003906000000001],
                    [-16.074219, 0],
                    [0, -0.44921899999999937],
                    [0, -4.371093999999999],
                    [-0.125, -0.3007819999999981],
                    [-0.3125, -0.11328100000000063],
                    [-0.41015600000000063, 0],
                    [-9.472656, 0],
                    [-0.6601560000000006, 0],
                    [0, -5.355468999999999],
                    [5.371093999999999, 0],
                    [0, -5.300781999999998],
                    [10.75, 0],
                    [-0.26953100000000063, -1.449218000000002],
                    [-10.707031, 0],
                    [0, -5.519531000000001],
                    [-2.6328129999999987, -0.007812999999998738],
                    [-2.7070310000000006, 0],
                    [0, -21.335937],
                    [-4.132812999999999, 0.21093799999999874],
                    [0, 5.441406000000001],
                    [-5.382811999999973, 0],
                    [0, -2.0039060000000006],
                    [-0.007811999999944419, -2.9570310000000006],
                    [-1.2539070000000265, 0],
                    [-9.414063000000056, 0],
                    [-0.828125, 0],
                    [0.22656199999994442, -5.078125],
                    [5.3710929999999735, 0],
                    [0, -15.996094],
                    [10.777344, 0],
                    [0, 5.355468000000002],
                    [-5.445312000000001, 0],
                    [0, 10.660156],
                    [5.492187000000001, 0],
                    [0, -5.328125],
                    [5.320312000000001, 0],
                    [0, 5.234375],
                    [5.125, -0.21875],
                    [0, -10.636719],
                    [5.394531000000001, 0],
                    [0, 0.44921899999999937],
                    [0, 14.910156],
                    [0, 0.2382819999999981],
                    [1.402343000000002, 0],
                    [4.980468999999999, 0],
                    [0, 5.347656999999998],
                    [-5.433593999999999, 0],
                    [0, 5.371093999999999],
                    [-2.6289060000000006, 0.015625],
                    [-2.6992189999999994, 0],
                    [0, 5.335937000000001],
                    [5.46875, 0],
                    [0, -5.320312000000001],
                    [5.339843999999999, 0],
                    [0.03906200000000126, 0.046875],
                    [0, 0.050781999999998106],
                    [0, 5.320312999999999]
                  ],
                  "o": [
                    [0, -10.746093000000002],
                    [-5.355468999999999, 0],
                    [0, -5.304687999999999],
                    [-0.01953100000000063, 0.023437000000001262],
                    [0.04296899999999937, -0.03125],
                    [5.199218999999999, 0],
                    [0, -5.359375],
                    [5.273437999999999, -0.023437999999998738],
                    [0, -5.453125],
                    [-5.316406999999998, 0],
                    [0, 5.457031000000001],
                    [-5.285156000000001, 0.023437000000001262],
                    [-0.25390600000000063, -1.484375],
                    [15.902344, 0],
                    [0, 0.39843700000000126],
                    [0, 4.378906000000001],
                    [0, 0.35156299999999874],
                    [0.13671899999999937, 0.3125],
                    [0.36718700000000126, 0.125],
                    [9.464844, 0],
                    [0.5859379999999987, 0],
                    [0, 5.332031999999998],
                    [-5.289062000000001, 0],
                    [0, 5.371093000000002],
                    [-10.746094, 0],
                    [-0.22265600000000063, 5.019531000000001],
                    [10.710937999999999, 0],
                    [0, 5.382812999999999],
                    [2.6328129999999987, 0.08984399999999937],
                    [2.65625, 0.007812000000001262],
                    [0, 21.402343000000002],
                    [1.4921879999999987, 0.25390600000000063],
                    [0, -5.363281000000001],
                    [5.347656000000001, 0],
                    [0, 1.9921870000000013],
                    [0, 2.953125],
                    [0, 1.2304689999999994],
                    [9.40625, 0.007812999999998738],
                    [0.8242179999999735, 0],
                    [0.2695309999999722, 1.4257810000000006],
                    [-5.242188000000056, 0],
                    [0, 16.007812],
                    [-10.8125, 0],
                    [0, -5.242187000000001],
                    [5.355468000000002, 0],
                    [0, -10.679687999999999],
                    [-5.375, 0],
                    [0, 5.273437000000001],
                    [-5.367187999999999, 0],
                    [0, -5.25],
                    [-1.4921879999999987, -0.28515600000000063],
                    [0, 10.628906],
                    [-5.261718999999999, 0],
                    [-0.015625, -0.44140600000000063],
                    [0, -14.910156],
                    [0, -0.23828100000000063],
                    [-0.015625, -1.4414060000000006],
                    [-4.90625, -0.007812000000001262],
                    [0, -5.324218000000002],
                    [5.402343999999999, 0],
                    [0, -5.308593000000002],
                    [2.6914060000000006, -0.125],
                    [2.65625, -0.015625],
                    [0, -5.316406000000001],
                    [-5.371093999999999, 0],
                    [0, 5.257812000000001],
                    [-5.308593999999999, 0],
                    [0.04296899999999937, 0.035156999999998106],
                    [-0.02734399999999937, -0.046875],
                    [0, -5.199218000000002],
                    [-5.371093000000002, 0.015625]
                  ]
                }
              }
            },
            {
              "ty": "sh",
              "ks": {
                "a": 0,
                "k": {
                  "c": true,
                  "v": [
                    [354.496094, 18.621094],
                    [245.675781, 18.613281],
                    [243.585938, 20.761719],
                    [243.59375, 129.398438],
                    [243.59375, 131.109375],
                    [356.109375, 131.109375],
                    [356.109375, 18.621094]
                  ],
                  "i": [
                    [0.5234369999999444, 0],
                    [36.277344, 0.015625],
                    [0, -2.078125],
                    [0, -36.210938],
                    [0, -0.5585939999999994],
                    [-37.44140599999997, 0],
                    [0, 37.523437]
                  ],
                  "o": [
                    [-36.26953200000003, 0],
                    [-2.1953120000000013, 0],
                    [0.007812000000001262, 36.207031],
                    [0, 0.5781240000000025],
                    [37.58984400000003, 0],
                    [0, -37.523437],
                    [-0.5703129999999987, 0]
                  ]
                }
              }
            },
            {
              "ty": "sh",
              "ks": {
                "a": 0,
                "k": {
                  "c": true,
                  "v": [
                    [338.496094, 115.207031],
                    [261.660156, 115.214844],
                    [259.566406, 113.070312],
                    [259.566406, 36.585938],
                    [261.628906, 34.589844],
                    [338.113281, 34.589844],
                    [340.191406, 36.75],
                    [340.183594, 113.414062],
                    [340.183594, 115.207031]
                  ],
                  "i": [
                    [0.527343999999971, 0],
                    [25.613282000000027, -0.015625],
                    [0, 2.0781259999999975],
                    [0.015625, 25.492187],
                    [-2.0234369999999444, 0],
                    [-25.492186999999944, 0.015625],
                    [0, -2.0703120000000013],
                    [0, -25.550781],
                    [0, -0.6367189999999994]
                  ],
                  "o": [
                    [-25.609375, 0],
                    [-2.1992179999999735, 0],
                    [0.007813000000055581, -25.492187],
                    [0, -1.972656999999998],
                    [25.492188000000056, 0.015625],
                    [2.199219000000028, 0],
                    [-0.007811999999944419, 25.550781],
                    [0, 0.5781259999999975],
                    [-0.6367190000000278, 0]
                  ]
                }
              }
            },
            {
              "ty": "sh",
              "ks": {
                "a": 0,
                "k": {
                  "c": true,
                  "v": [
                    [18.878906, 131.128906],
                    [130.972656, 131.015625],
                    [130.972656, 18.652344],
                    [18.878906, 18.652344]
                  ],
                  "i": [
                    [0, -37.4375],
                    [-1.5078120000000013, 0.265625],
                    [0, 37.46875],
                    [37.386719, 0]
                  ],
                  "o": [
                    [6.125, 0.2695319999999981],
                    [0, -37.453125],
                    [-37.378906, 0],
                    [0, 37.597656]
                  ]
                }
              }
            },
            {
              "ty": "sh",
              "ks": {
                "a": 0,
                "k": {
                  "c": true,
                  "v": [
                    [115.019531, 115.15625],
                    [34.972656, 115.15625],
                    [34.867188, 34.664062],
                    [115.019531, 34.664062]
                  ],
                  "i": [
                    [0, -26.851562],
                    [26.675781999999998, 0],
                    [-0.2539069999999981, 5.6406259999999975],
                    [-26.8125, 0]
                  ],
                  "o": [
                    [-26.699219, 0],
                    [-0.25390600000000063, -1.4921879999999987],
                    [26.671874000000003, 0],
                    [0, 26.851563]
                  ]
                }
              }
            },
            {
              "ty": "sh",
              "ks": {
                "a": 0,
                "k": {
                  "c": true,
                  "v": [
                    [130.972656, 243.816406],
                    [18.886719, 243.929688],
                    [18.886719, 356.296875],
                    [130.972656, 356.296875]
                  ],
                  "i": [
                    [0, 37.441406],
                    [1.5039060000000006, -0.2695319999999981],
                    [0, -37.47265599999997],
                    [-37.378906, 0]
                  ],
                  "o": [
                    [-6.292968000000002, -0.26953100000000063],
                    [0, 37.45703100000003],
                    [37.378906, 0],
                    [0, -37.59765599999997]
                  ]
                }
              }
            },
            {
              "ty": "sh",
              "ks": {
                "a": 0,
                "k": {
                  "c": true,
                  "v": [
                    [114.988281, 259.761719],
                    [114.988281, 340.164062],
                    [34.859375, 340.28125],
                    [34.859375, 259.761719]
                  ],
                  "i": [
                    [-26.726562, 0],
                    [0, -26.80078100000003],
                    [6.71875, 0.2695309999999722],
                    [0, 26.94921899999997]
                  ],
                  "o": [
                    [0, 26.8125],
                    [-1.5039060000000006, 0.27734399999997095],
                    [0, -26.78125],
                    [26.730469, 0]
                  ]
                }
              }
            },
            {
              "ty": "sh",
              "ks": {
                "a": 0,
                "k": {
                  "c": true,
                  "v": [
                    [257.78125, 324.007812],
                    [258.847656, 324.007812],
                    [259.921875, 325.011719],
                    [259.925781, 326.429688],
                    [259.925781, 339.914062],
                    [275.871094, 339.914062],
                    [275.871094, 308.015625],
                    [259.621094, 308.015625],
                    [259.777344, 292.050781],
                    [291.886719, 292.050781],
                    [291.886719, 275.902344],
                    [307.867188, 275.78125],
                    [307.867188, 292.050781],
                    [323.851562, 292.050781],
                    [323.851562, 279.878906],
                    [323.859375, 276.683594],
                    [324.796875, 275.722656],
                    [325.859375, 275.714844],
                    [338.820312, 275.714844],
                    [340.125, 275.714844],
                    [340.125, 259.734375],
                    [324.121094, 259.734375],
                    [323.96875, 259.671875],
                    [323.78125, 259.46875],
                    [323.78125, 227.8125],
                    [307.84375, 227.8125],
                    [307.84375, 259.679688],
                    [291.847656, 259.679688],
                    [291.847656, 227.828125],
                    [275.910156, 227.828125],
                    [275.910156, 243.765625],
                    [259.933594, 243.765625],
                    [259.933594, 245.648438],
                    [259.933594, 274.050781],
                    [259.90625, 275.28125],
                    [259.140625, 276.03125],
                    [258.089844, 276.058594],
                    [244.949219, 276.058594],
                    [243.609375, 276.113281],
                    [243.609375, 323.992188]
                  ],
                  "i": [
                    [-4.722656000000001, 0],
                    [-0.3515619999999444, -0.007812000000001262],
                    [-0.03125, -0.7265630000000556],
                    [0, -0.47265700000002653],
                    [0, -4.5156240000000025],
                    [-5.292969000000028, 0],
                    [0, 10.6875],
                    [5.398436999999944, 0],
                    [-0.2929690000000278, 1.3867190000000278],
                    [-10.703125, 0],
                    [0, 5.3867179999999735],
                    [-5.0468759999999975, -0.2226559999999722],
                    [0, -5.421875],
                    [-5.363281000000029, 0],
                    [0, 4.011719000000028],
                    [-0.023437000000001262, 1.0625],
                    [-0.6171870000000013, 0.03906300000005558],
                    [-0.35156299999999874, 0],
                    [-4.320312000000001, 0],
                    [-0.40625, 0],
                    [0, 5.316405999999972],
                    [5.316405999999972, 0],
                    [0.046875, 0.03125],
                    [0.10546900000002779, 0.12109400000002779],
                    [0, 10.582031],
                    [5.371094000000028, 0],
                    [0, -10.589844],
                    [5.371094000000028, 0],
                    [0, 10.566406],
                    [5.308594000000028, 0],
                    [0, -5.378906000000001],
                    [5.332030999999972, 0],
                    [0, -0.5859379999999987],
                    [0, -9.464842999999973],
                    [0.13281200000000126, -0.36718799999999874],
                    [0.3085940000000278, -0.1367190000000278],
                    [0.3515619999999444, 0],
                    [4.378906000000001, 0],
                    [0.44140600000000063, -0.015625],
                    [0, -15.914062999999999]
                  ],
                  "o": [
                    [0.3554690000000278, 0],
                    [0.765625, 0.03125],
                    [0.01953099999997221, 0.4726559999999722],
                    [0, 4.4843740000000025],
                    [5.363281000000029, 0],
                    [0, -10.640624000000003],
                    [-5.4375, 0],
                    [-0.21875, -6.628905999999972],
                    [10.703125, 0],
                    [0, -5.386718999999971],
                    [1.4453119999999444, -0.2617190000000278],
                    [0, 5.421875],
                    [5.3085929999999735, 0],
                    [0, -4.140625],
                    [0, -1.0664059999999722],
                    [0.01171900000002779, -0.6328130000000556],
                    [0.35156299999999874, -0.02343699999994442],
                    [4.320312999999999, 0],
                    [0.44921899999997095, 0],
                    [0, -5.414063000000056],
                    [-5.378905999999972, 0],
                    [-0.05468800000005558, 0],
                    [-0.04296900000002779, -0.03125],
                    [0, -10.5],
                    [-5.316405999999972, 0],
                    [0, 10.65625],
                    [-5.375, 0],
                    [0, -10.664062999999999],
                    [-5.378905999999972, 0],
                    [0, 5.308593999999999],
                    [-5.3554679999999735, 0],
                    [0, 0.7109370000000013],
                    [0, 9.464843000000002],
                    [0, 0.41015700000002653],
                    [-0.11328099999997221, 0.30468799999999874],
                    [-0.3007809999999722, 0.125],
                    [-4.378906000000029, 0],
                    [-0.44921899999999937, 0],
                    [0, 16.042969000000028],
                    [4.714843999999999, 0.015624000000002525]
                  ]
                }
              }
            },
            {
              "ty": "sh",
              "ks": {
                "a": 0,
                "k": {
                  "c": true,
                  "v": [
                    [50.765625, 179.421875],
                    [50.765625, 163.574219],
                    [34.835938, 163.574219],
                    [34.835938, 195.496094],
                    [50.8125, 195.496094],
                    [50.8125, 227.332031],
                    [83.136719, 227.332031],
                    [83.136719, 195.457031],
                    [98.789062, 195.457031],
                    [98.941406, 195.398438],
                    [98.992188, 195.34375],
                    [98.992188, 163.492188],
                    [83.054688, 163.492188],
                    [83.054688, 147.21875],
                    [50.84375, 147.21875],
                    [50.84375, 163.199219],
                    [66.703125, 163.199219],
                    [66.703125, 179.421875]
                  ],
                  "i": [
                    [5.3125, 0],
                    [0, 5.289062000000001],
                    [5.289062000000001, 0],
                    [0, -10.695312999999999],
                    [-5.347656000000001, 0],
                    [0, -10.558593000000002],
                    [-10.792969, 0],
                    [0, 10.644531],
                    [-5.195312000000001, 0],
                    [-0.046875, 0.027343000000001894],
                    [0.03125, -0.02734399999999937],
                    [0, 10.636718000000002],
                    [5.378906000000001, 0],
                    [0, 5.390625],
                    [10.703125, 0],
                    [0, -5.355468999999999],
                    [-5.277343999999999, 0],
                    [0, -5.421875]
                  ],
                  "o": [
                    [0, -5.308593999999999],
                    [-5.351562999999999, 0],
                    [0, 10.652343000000002],
                    [5.335937000000001, 0],
                    [0, 10.703125],
                    [10.792969, 0],
                    [0, -10.65625],
                    [5.257812000000001, 0],
                    [0.05468799999999874, 0],
                    [0.04296899999999937, -0.03125],
                    [0, -10.640625],
                    [-5.316406999999998, 0],
                    [0, -5.46875],
                    [-10.816406999999998, 0],
                    [0, 5.339843999999999],
                    [5.332031000000001, 0],
                    [0, 5.429687000000001],
                    [-5.375, 0]
                  ]
                }
              }
            },
            {
              "ty": "sh",
              "ks": {
                "a": 0,
                "k": {
                  "c": true,
                  "v": [
                    [163.34375, 308.023438],
                    [211.636719, 308.023438],
                    [211.636719, 292.042969],
                    [197.257812, 292.042969],
                    [196.191406, 292.042969],
                    [195.316406, 291.195312],
                    [195.308594, 289.949219],
                    [195.308594, 261.539062],
                    [195.308594, 259.679688],
                    [163.296875, 259.679688],
                    [163.296875, 227.828125],
                    [147.367188, 227.953125],
                    [147.367188, 251.746094],
                    [147.367188, 275.722656],
                    [163.265625, 275.722656],
                    [163.265625, 292.078125],
                    [147.441406, 292.078125],
                    [147.546875, 324],
                    [163.351562, 324]
                  ],
                  "i": [
                    [0, 5.378906000000029],
                    [-16.066406999999998, 0],
                    [0, 5.332030999999972],
                    [4.792968999999999, 0],
                    [0.35546899999999937, 0],
                    [0.050781999999998106, 0.5078129999999987],
                    [0, 0.421875],
                    [0, 9.472657000000027],
                    [0, 0.6992179999999735],
                    [10.679687000000001, 0],
                    [0, 10.574219],
                    [1.4414060000000006, -0.27734399999999937],
                    [0, -7.929687999999999],
                    [0, -8.03125],
                    [-5.261718999999999, 0],
                    [0, -5.472655999999972],
                    [5.25, 0],
                    [-0.24609399999999937, -1.453125],
                    [-5.2656240000000025, 0]
                  ],
                  "o": [
                    [16.167969, 0],
                    [0, -5.324218999999971],
                    [-4.792968999999999, 0],
                    [-0.35156200000000126, 0],
                    [-0.5703120000000013, 0],
                    [-0.046875, -0.41406200000000126],
                    [0, -9.472657000000027],
                    [0, -0.5781240000000025],
                    [-10.710937999999999, 0],
                    [0, -10.703125999999997],
                    [-4.925781000000001, -0.22656299999999874],
                    [0, 7.929687000000001],
                    [0, 7.972656000000001],
                    [5.386718000000002, 0],
                    [0, 5.476563000000056],
                    [-5.324218999999999, 0],
                    [-0.2304680000000019, 4.292969000000028],
                    [5.265625, 0],
                    [-0.007812000000001262, -5.296875]
                  ]
                }
              }
            },
            {
              "ty": "sh",
              "ks": {
                "a": 0,
                "k": {
                  "c": true,
                  "v": [
                    [99.105469, 147.171875],
                    [99.105469, 163.15625],
                    [99.984375, 163.15625],
                    [111.34375, 163.15625],
                    [129.988281, 163.15625],
                    [131.378906, 164.558594],
                    [131.378906, 178.050781],
                    [130.019531, 179.484375],
                    [123.628906, 179.484375],
                    [115.125, 179.484375],
                    [115.125, 195.464844],
                    [139.164062, 195.464844],
                    [163.335938, 195.464844],
                    [163.335938, 203.527344],
                    [163.386719, 211.441406],
                    [179.308594, 211.441406],
                    [179.308594, 179.484375],
                    [147.621094, 179.484375],
                    [147.472656, 179.421875],
                    [147.351562, 179.296875],
                    [147.351562, 147.171875]
                  ],
                  "i": [
                    [16.101562, 0],
                    [0, -5.355468999999999],
                    [-0.28125, 0],
                    [-3.7851560000000006, 0],
                    [-6.214843000000002, 0],
                    [0, -1.238281999999998],
                    [0.007812999999998738, -4.5],
                    [1.222656999999998, -0.007812999999998738],
                    [2.1328129999999987, 0],
                    [2.8515620000000013, 0],
                    [0, -5.316406000000001],
                    [-7.988281000000001, 0],
                    [-8.109375999999997, 0],
                    [-0.015625999999997475, -2.65625],
                    [-0.12109399999999937, -2.6328120000000013],
                    [-5.261718999999999, 0],
                    [0, 10.6875],
                    [10.523437000000001, 0],
                    [0.04296899999999937, 0.03125],
                    [0.03906299999999874, 0.04296899999999937],
                    [0, 10.703125]
                  ],
                  "o": [
                    [0, 5.378906000000001],
                    [0.31640600000000063, 0],
                    [3.7851560000000006, 0],
                    [6.21875, 0],
                    [1.2304689999999994, 0],
                    [0.007812999999998738, 4.5],
                    [0, 1.2890629999999987],
                    [-2.1289060000000006, 0.003906000000000631],
                    [-2.828125, 0],
                    [0, 5.375],
                    [8.0625, 0],
                    [8.03125, 0],
                    [0, 2.761718000000002],
                    [0.015624000000002525, 2.640625],
                    [5.386718999999999, 0],
                    [0, -10.636718000000002],
                    [-10.640625, 0],
                    [-0.050781999999998106, 0],
                    [-0.046875, -0.03125],
                    [0, -10.710937000000001],
                    [-16.0625, 0]
                  ]
                }
              }
            },
            {
              "ty": "sh",
              "ks": {
                "a": 0,
                "k": {
                  "c": true,
                  "v": [
                    [327.613281, 163.148438],
                    [338.976562, 163.15625],
                    [340.175781, 164.390625],
                    [340.175781, 165.277344],
                    [340.175781, 177.351562],
                    [340.175781, 179.488281],
                    [324.269531, 179.488281],
                    [324.269531, 195.488281],
                    [340.214844, 195.488281],
                    [340.214844, 211.378906],
                    [356.085938, 211.378906],
                    [355.972656, 147.234375],
                    [324.234375, 147.234375],
                    [324.234375, 163.148438]
                  ],
                  "i": [
                    [-1.109375, 0],
                    [-3.785156000000029, -0.015625],
                    [-0.01953099999997221, -1.0117189999999994],
                    [0, -0.29296899999999937],
                    [0, -4.027343000000002],
                    [0, -0.75],
                    [5.28125, 0],
                    [0, -5.347656000000001],
                    [-5.371094000000028, 0],
                    [0, -5.242187000000001],
                    [-5.242187999999999, 0],
                    [0.26953200000002653, 1.4375],
                    [10.574219000000028, 0],
                    [0, -5.347656999999998]
                  ],
                  "o": [
                    [3.7890630000000556, 0],
                    [0.9921879999999987, 0],
                    [0.007813000000055581, 0.29296899999999937],
                    [0, 4.027343999999999],
                    [0, 0.6992189999999994],
                    [-5.375, 0],
                    [0, 5.355468999999999],
                    [5.324219000000028, 0],
                    [0, 5.355468999999999],
                    [5.378905999999972, 0],
                    [0.26953100000002905, -5.984375],
                    [-10.589843999999971, 0],
                    [0, 5.316406000000001],
                    [1.1601559999999722, 0]
                  ]
                }
              }
            },
            {
              "ty": "sh",
              "ks": {
                "a": 0,
                "k": {
                  "c": true,
                  "v": [
                    [211.582031, 243.757812],
                    [211.582031, 227.773438],
                    [197.984375, 227.773438],
                    [196.214844, 227.773438],
                    [195.316406, 226.949219],
                    [195.308594, 225.886719],
                    [195.308594, 212.761719],
                    [195.238281, 211.433594],
                    [179.332031, 211.433594],
                    [179.332031, 243.75],
                    [187.582031, 243.75],
                    [195.726562, 243.773438],
                    [195.726562, 259.671875],
                    [227.625, 259.546875],
                    [227.625, 243.75]
                  ],
                  "i": [
                    [5.421875, 0],
                    [0, 5.2968740000000025],
                    [4.492187000000001, 0],
                    [0.5859370000000013, -0.007812999999998738],
                    [0.07421899999999937, 0.4960930000000019],
                    [0, 0.359375],
                    [0, 4.371093000000002],
                    [0.023437999999998738, 0.43359399999999937],
                    [5.257812999999999, 0],
                    [0, -10.816406],
                    [-2.714843000000002, -0.007812000000001262],
                    [-2.75, -0.046875999999997475],
                    [0, -5.242187000000001],
                    [-1.53125, 0.2773440000000278],
                    [0, 5.265625]
                  ],
                  "o": [
                    [0, -5.398437000000001],
                    [-4.613281000000001, 0],
                    [-0.59375, 0],
                    [-0.5703129999999987, 0.015624000000002525],
                    [-0.05468700000000126, -0.34375],
                    [0, -4.375],
                    [0, -0.44531299999999874],
                    [-5.382812000000001, 0],
                    [0, 10.746094],
                    [2.828125, 0],
                    [2.691406999999998, 0.007812000000001262],
                    [0, 5.40625],
                    [6.152343999999999, 0.25],
                    [0, -5.265625],
                    [-5.316406000000001, 0.007812000000001262]
                  ]
                }
              }
            },
            {
              "ty": "sh",
              "ks": {
                "a": 0,
                "k": {
                  "c": true,
                  "v": [
                    [99.136719, 227.363281],
                    [147.308594, 227.25],
                    [147.308594, 211.46875],
                    [99.136719, 211.46875]
                  ],
                  "i": [
                    [0, -5.242187000000001],
                    [-1.515625, 0.26171899999999937],
                    [0, 5.273437999999999],
                    [16.078125, 0]
                  ],
                  "o": [
                    [6.375, 0.2539069999999981],
                    [0, -5.257812000000001],
                    [-16.082031999999998, 0],
                    [0, 5.402343999999999]
                  ]
                }
              }
            },
            {
              "ty": "sh",
              "ks": {
                "a": 0,
                "k": {
                  "c": true,
                  "v": [
                    [227.617188, 356.257812],
                    [243.601562, 356.128906],
                    [243.601562, 324.007812],
                    [227.617188, 324.007812]
                  ],
                  "i": [
                    [0, -10.746092999999973],
                    [-1.449218000000002, 0.26953200000002653],
                    [0, 10.710937999999999],
                    [5.332031000000001, 0]
                  ],
                  "o": [
                    [5.019531000000001, 0.22656299999999874],
                    [0, -10.707030999999972],
                    [-5.3281240000000025, 0],
                    [0, 10.753907000000027]
                  ]
                }
              }
            },
            {
              "ty": "sh",
              "ks": {
                "a": 0,
                "k": {
                  "c": true,
                  "v": [
                    [163.34375, 147.171875],
                    [163.34375, 115.214844],
                    [147.359375, 115.214844],
                    [147.359375, 147.171875]
                  ],
                  "i": [
                    [-5.378906000000001, 0],
                    [0, 10.621094],
                    [5.378906000000001, 0],
                    [0, -10.621094]
                  ],
                  "o": [
                    [0, -10.71875],
                    [-5.304687999999999, 0],
                    [0, 10.71875],
                    [5.304687000000001, 0]
                  ]
                }
              }
            },
            {
              "ty": "sh",
              "ks": {
                "a": 0,
                "k": {
                  "c": true,
                  "v": [
                    [18.878906, 211.507812],
                    [19.003906, 227.363281],
                    [34.769531, 227.363281],
                    [34.769531, 211.507812]
                  ],
                  "i": [
                    [5.242187999999999, 0],
                    [-0.26953100000000063, -1.3867189999999994],
                    [-5.265625, 0],
                    [0, 5.300781999999998]
                  ],
                  "o": [
                    [-0.21875, 5.65625],
                    [5.257812999999999, 0],
                    [0, -5.3125],
                    [-5.40625, 0]
                  ]
                }
              }
            },
            {
              "ty": "sh",
              "ks": {
                "a": 0,
                "k": {
                  "c": true,
                  "v": [
                    [307.867188, 196.53125],
                    [306.878906, 195.464844],
                    [293.21875, 195.464844],
                    [291.953125, 195.523438],
                    [291.953125, 211.410156],
                    [307.867188, 211.410156]
                  ],
                  "i": [
                    [0, 4.902343999999999],
                    [0.9804690000000278, 0],
                    [4.554687999999999, 0],
                    [0.375, -0.011718999999999369],
                    [0, -5.265625],
                    [-5.3632820000000265, 0]
                  ],
                  "o": [
                    [0, -1.0507810000000006],
                    [-4.554686999999944, -0.007812999999998738],
                    [-0.4414059999999722, 0],
                    [0, 5.371093000000002],
                    [5.308594000000028, 0],
                    [0, -5.070312000000001]
                  ]
                }
              }
            },
            {
              "ty": "sh",
              "ks": {
                "a": 0,
                "k": {
                  "c": true,
                  "v": [
                    [323.78125, 163.558594],
                    [307.925781, 163.679688],
                    [307.925781, 179.453125],
                    [323.78125, 179.453125]
                  ],
                  "i": [
                    [0, 5.242187000000001],
                    [1.3984380000000556, -0.2539069999999981],
                    [0, -5.273437000000001],
                    [-5.300780999999972, 0]
                  ],
                  "o": [
                    [-5.339844000000028, -0.21484399999999937],
                    [0, 5.257812000000001],
                    [5.3125, 0],
                    [0, -5.402343999999999]
                  ]
                }
              }
            },
            {
              "ty": "sh",
              "ks": {
                "a": 0,
                "k": {
                  "c": true,
                  "v": [
                    [211.6875, 227.347656],
                    [227.578125, 227.347656],
                    [227.578125, 211.492188],
                    [211.6875, 211.492188]
                  ],
                  "i": [
                    [0, -5.300781000000001],
                    [-5.269531000000001, 0],
                    [0, 5.2968740000000025],
                    [5.25, 0]
                  ],
                  "o": [
                    [5.332031000000001, 0],
                    [0, -5.316406000000001],
                    [-5.339843999999999, 0],
                    [0, 5.25]
                  ]
                }
              }
            },
            {
              "ty": "sh",
              "ks": {
                "a": 0,
                "k": {
                  "c": true,
                  "v": [
                    [291.945312, 163.085938],
                    [307.808594, 162.976562],
                    [307.808594, 147.195312],
                    [291.945312, 147.195312]
                  ],
                  "i": [
                    [0, -5.242187999999999],
                    [-1.4023440000000278, 0.24609399999999937],
                    [0, 5.28125],
                    [5.308593999999971, 0]
                  ],
                  "o": [
                    [5.0039070000000265, 0.21093700000000126],
                    [0, -5.257812000000001],
                    [-5.304688000000056, 0],
                    [0, 5.40625]
                  ]
                }
              }
            },
            {
              "ty": "sh",
              "ks": {
                "a": 0,
                "k": {
                  "c": true,
                  "v": [
                    [243.515625, 243.703125],
                    [243.515625, 227.8125],
                    [227.664062, 227.8125],
                    [227.664062, 243.703125]
                  ],
                  "i": [
                    [-5.300781000000001, 0],
                    [0, 5.273437999999999],
                    [5.292968999999999, 0],
                    [0, -5.25]
                  ],
                  "o": [
                    [0, -5.332031000000001],
                    [-5.316406000000001, 0],
                    [0, 5.339843999999999],
                    [5.257812999999999, 0]
                  ]
                }
              }
            },
            {
              "ty": "sh",
              "ks": {
                "a": 0,
                "k": {
                  "c": true,
                  "v": [
                    [18.886719, 163.09375],
                    [34.738281, 162.976562],
                    [34.738281, 147.203125],
                    [18.886719, 147.203125]
                  ],
                  "i": [
                    [0, -5.242187999999999],
                    [-1.3945310000000006, 0.2539069999999981],
                    [0, 5.273437000000001],
                    [5.300781000000001, 0]
                  ],
                  "o": [
                    [5.449218999999999, 0.21875],
                    [0, -5.257812000000001],
                    [-5.308593000000002, 0],
                    [0, 5.398437000000001]
                  ]
                }
              }
            },
            {
              "ty": "sh",
              "ks": {
                "a": 0,
                "k": {
                  "c": true,
                  "v": [
                    [211.636719, 82.898438],
                    [227.550781, 82.898438],
                    [227.429688, 66.914062],
                    [211.636719, 66.914062]
                  ],
                  "i": [
                    [0, -5.324218999999999],
                    [-5.304687000000001, 0],
                    [0.2617180000000019, 1.457031999999998],
                    [5.261718999999999, 0]
                  ],
                  "o": [
                    [5.308593000000002, 0],
                    [0.21484399999999937, -5.0468759999999975],
                    [-5.2656259999999975, 0],
                    [0, 5.324218999999999]
                  ]
                }
              }
            },
            {
              "ty": "sh",
              "ks": {
                "a": 0,
                "k": {
                  "c": true,
                  "v": [
                    [227.542969, 291.996094],
                    [227.542969, 276.105469],
                    [211.6875, 276.105469],
                    [211.6875, 291.996094]
                  ],
                  "i": [
                    [-5.304687999999999, 0],
                    [0, 5.273436999999944],
                    [5.296875, 0],
                    [0, -5.25]
                  ],
                  "o": [
                    [0, -5.3320320000000265],
                    [-5.316406999999998, 0],
                    [0, 5.3398429999999735],
                    [5.25, 0]
                  ]
                }
              }
            },
            {
              "ty": "sh",
              "ks": {
                "a": 0,
                "k": {
                  "c": true,
                  "v": [
                    [291.886719, 292.050781],
                    [291.886719, 307.964844],
                    [307.867188, 307.84375],
                    [307.867188, 292.050781]
                  ],
                  "i": [
                    [5.324218999999971, 0],
                    [0, -5.3007820000000265],
                    [-1.4531259999999975, 0.265625],
                    [0, 5.265625]
                  ],
                  "o": [
                    [0, 5.308594000000028],
                    [5.046875, 0.21875],
                    [0, -5.265625],
                    [-5.324218999999971, 0]
                  ]
                }
              }
            },
            {
              "ty": "sh",
              "ks": {
                "a": 0,
                "k": {
                  "c": true,
                  "v": [
                    [340.125, 292.109375],
                    [324.261719, 292.214844],
                    [324.261719, 307.996094],
                    [340.125, 307.996094]
                  ],
                  "i": [
                    [0, 5.242187000000001],
                    [1.4101559999999722, -0.23828200000002653],
                    [0, -5.28125],
                    [-5.308594000000028, 0]
                  ],
                  "o": [
                    [-4.640625, -0.21093700000000126],
                    [0, 5.257811999999944],
                    [5.304686999999944, 0],
                    [0, -5.3945320000000265]
                  ]
                }
              }
            },
            {
              "ty": "sh",
              "ks": {
                "a": 0,
                "k": {
                  "c": true,
                  "v": [
                    [211.636719, 324.007812],
                    [227.617188, 324.007812],
                    [227.617188, 308.023438],
                    [211.636719, 308.023438]
                  ],
                  "i": [
                    [0, -5.3867179999999735],
                    [-5.300781999999998, 0],
                    [0, 5.3867179999999735],
                    [5.300781000000001, 0]
                  ],
                  "o": [
                    [5.382812000000001, 0],
                    [0, -5.2968740000000025],
                    [-5.382812999999999, 0],
                    [0, 5.304687000000001]
                  ]
                }
              }
            },
            {
              "ty": "sh",
              "ks": {
                "a": 0,
                "k": {
                  "c": true,
                  "v": [
                    [163.394531, 339.914062],
                    [179.289062, 339.914062],
                    [179.289062, 324.058594],
                    [163.394531, 324.058594]
                  ],
                  "i": [
                    [0, -5.300781000000029],
                    [-5.273437000000001, 0],
                    [0, 5.296875],
                    [5.25, 0]
                  ],
                  "o": [
                    [5.332031000000001, 0],
                    [0, -5.316406000000029],
                    [-5.339843000000002, 0],
                    [0, 5.25]
                  ]
                }
              }
            },
            {
              "ty": "sh",
              "ks": {
                "a": 0,
                "k": {
                  "c": true,
                  "v": [
                    [356.101562, 339.921875],
                    [355.972656, 324.066406],
                    [340.199219, 324.066406],
                    [340.199219, 339.921875]
                  ],
                  "i": [
                    [-5.238281000000029, 0],
                    [0.2617190000000278, 1.3945320000000265],
                    [5.273436999999944, 0],
                    [0, -5.300780999999972]
                  ],
                  "o": [
                    [0.21484399999997095, -5.5625],
                    [-5.257811999999944, 0],
                    [0, 5.3125],
                    [5.414061999999944, 0]
                  ]
                }
              }
            },
            {
              "ty": "sh",
              "ks": {
                "a": 0,
                "k": {
                  "c": true,
                  "v": [
                    [163.28125, 340.410156],
                    [147.421875, 340.515625],
                    [147.421875, 356.296875],
                    [163.28125, 356.296875]
                  ],
                  "i": [
                    [0, 5.242188000000056],
                    [1.40625, -0.24218700000000126],
                    [0, -5.28125],
                    [-5.308593999999999, 0]
                  ],
                  "o": [
                    [-4.609375, -0.21093699999994442],
                    [0, 5.257812999999999],
                    [5.300781000000001, 0],
                    [0, -5.402344000000028]
                  ]
                }
              }
            },
            {
              "ty": "sh",
              "ks": {
                "a": 0,
                "k": {
                  "c": true,
                  "v": [
                    [291.832031, 356.257812],
                    [291.710938, 340.402344],
                    [275.941406, 340.402344],
                    [275.941406, 356.257812]
                  ],
                  "i": [
                    [-5.242186999999944, 0],
                    [0.25781200000000126, 1.3945309999999722],
                    [5.2695320000000265, 0],
                    [0, -5.304687000000001]
                  ],
                  "o": [
                    [0.21875, -5.3398429999999735],
                    [-5.257812999999999, 0],
                    [0, 5.308593999999971],
                    [5.398438000000056, 0]
                  ]
                }
              }
            },
            {
              "ty": "sh",
              "ks": {
                "a": 0,
                "k": {
                  "c": true,
                  "v": [
                    [307.867188, 355.066406],
                    [309.046875, 356.316406],
                    [323.773438, 356.324219],
                    [323.773438, 340.371094],
                    [307.859375, 340.371094]
                  ],
                  "i": [
                    [-0.007812999999998738, -4.847655999999972],
                    [-0.9765629999999987, 0],
                    [-4.933593999999971, 0],
                    [0, 5.3125],
                    [5.363280999999972, 0]
                  ],
                  "o": [
                    [0, 1.0273440000000278],
                    [4.894530999999972, 0.007813000000055581],
                    [0, -5.355469000000028],
                    [-5.308593999999971, 0],
                    [0.007812999999998738, 5.003905999999972]
                  ]
                }
              }
            },
            {
              "ty": "sh",
              "ks": {
                "a": 0,
                "k": {
                  "c": true,
                  "v": [
                    [275.960938, 51],
                    [276.082031, 98.8125],
                    [323.8125, 98.8125],
                    [323.8125, 51]
                  ],
                  "i": [
                    [15.902342999999973, 0],
                    [-0.27734299999997347, -1.4921879999999987],
                    [-15.921875, 0],
                    [0, 15.953125]
                  ],
                  "o": [
                    [-0.26953200000002653, 6.90625],
                    [15.90625, 0],
                    [0, -15.960937999999999],
                    [-16.058594000000028, 0]
                  ]
                }
              }
            },
            {
              "ty": "sh",
              "ks": {
                "a": 0,
                "k": {
                  "c": true,
                  "v": [
                    [99.007812, 98.820312],
                    [98.894531, 51],
                    [50.804688, 51],
                    [50.804688, 98.820312]
                  ],
                  "i": [
                    [-16.011718000000002, 0],
                    [0.26171899999999937, 1.4765620000000013],
                    [16.042968000000002, 0],
                    [0, -15.960937000000001]
                  ],
                  "o": [
                    [0.2539069999999981, -5.761718000000002],
                    [-16.027343000000002, 0],
                    [0, 15.960937999999999],
                    [16.171874000000003, 0]
                  ]
                }
              }
            },
            {
              "ty": "sh",
              "ks": {
                "a": 0,
                "k": {
                  "c": true,
                  "v": [
                    [99.007812, 323.949219],
                    [98.902344, 276.128906],
                    [50.8125, 276.128906],
                    [50.8125, 323.949219]
                  ],
                  "i": [
                    [-16.011718000000002, 0],
                    [0.24609399999999937, 1.46875],
                    [16.042969, 0],
                    [0, -15.960938000000056]
                  ],
                  "o": [
                    [0.24609399999999937, -5.339844000000028],
                    [-16.027344, 0],
                    [0, 15.957032000000027],
                    [16.164062, 0]
                  ]
                }
              }
            },
            {
              "ty": "sh",
              "ks": {
                "a": 0,
                "k": {
                  "c": true,
                  "v": [[99.007812, 323.949219]],
                  "i": [[0, 0]],
                  "o": [[0, 0]]
                }
              }
            },
            { "ty": "sh", "ks": { "a": 0, "k": { "c": true } } },
            {
              "ty": "st",
              "o": { "a": 0, "k": 0 },
              "w": { "a": 0, "k": 0 },
              "c": { "a": 0, "k": [0, 0, 0, 0] },
              "lc": 3,
              "lj": 1,
              "ml": 1
            },
            {
              "ty": "fl",
              "o": { "a": 0, "k": 100 },
              "r": 1,
              "c": { "a": 0, "k": [0, 0, 0, 1] }
            },
            {
              "ty": "tr",
              "o": { "a": 0, "k": 100 },
              "a": { "a": 0, "k": [0, 0] },
              "s": { "a": 0, "k": [100, 100] },
              "p": { "a": 0, "k": [0, 0] },
              "r": { "a": 0, "k": 0 }
            }
          ]
        },
        {
          "ty": "gr",
          "nm": "download shape group",
          "it": [
            {
              "ty": "rc",
              "s": { "a": 0, "k": [450, 449.999989] },
              "r": { "a": 0, "k": 0 },
              "p": { "a": 0, "k": [187.5, 187.4999955] }
            },
            {
              "ty": "st",
              "o": { "a": 0, "k": 0 },
              "w": { "a": 0, "k": 0 },
              "c": { "a": 0, "k": [0, 0, 0, 0] },
              "lc": 3,
              "lj": 1,
              "ml": 1
            },
            {
              "ty": "fl",
              "o": { "a": 0, "k": 100 },
              "r": 1,
              "c": { "a": 0, "k": [1, 1, 1, 1] }
            },
            {
              "ty": "tr",
              "o": { "a": 0, "k": 100 },
              "a": { "a": 0, "k": [0, 0] },
              "s": { "a": 0, "k": [100, 100] },
              "p": { "a": 0, "k": [0, 0] },
              "r": { "a": 0, "k": 0 }
            }
          ]
        }
      ],
      "op": 50
    }
  ],
  "op": 50,
  "w": 218,
  "h": 209
}
